digraph Tree {
node [shape=box] ;
0 [label="X[0] <= 169.55\ngini = 0.5\nsamples = 248\nvalue = [125, 123]"] ;
1 [label="X[1] <= 41.5\ngini = 0.482\nsamples = 111\nvalue = [66, 45]"] ;
0 -> 1 [labeldistance=2.5, labelangle=45, headlabel="True"] ;
2 [label="X[0] <= 160.9\ngini = 0.142\nsamples = 13\nvalue = [12, 1]"] ;
1 -> 2 ;
3 [label="gini = 0.278\nsamples = 6\nvalue = [5, 1]"] ;
2 -> 3 ;
4 [label="gini = 0.0\nsamples = 7\nvalue = [7, 0]"] ;
2 -> 4 ;
5 [label="X[2] <= 7.65\ngini = 0.495\nsamples = 98\nvalue = [54, 44]"] ;
1 -> 5 ;
6 [label="X[1] <= 60.0\ngini = 0.482\nsamples = 89\nvalue = [53, 36]"] ;
5 -> 6 ;
7 [label="X[2] <= 4.8\ngini = 0.499\nsamples = 63\nvalue = [33, 30]"] ;
6 -> 7 ;
8 [label="gini = 0.0\nsamples = 6\nvalue = [0, 6]"] ;
7 -> 8 ;
9 [label="X[2] <= 5.9\ngini = 0.488\nsamples = 57\nvalue = [33, 24]"] ;
7 -> 9 ;
10 [label="X[1] <= 54.5\ngini = 0.219\nsamples = 16\nvalue = [14, 2]"] ;
9 -> 10 ;
11 [label="gini = 0.0\nsamples = 9\nvalue = [9, 0]"] ;
10 -> 11 ;
12 [label="gini = 0.408\nsamples = 7\nvalue = [5, 2]"] ;
10 -> 12 ;
13 [label="X[0] <= 161.65\ngini = 0.497\nsamples = 41\nvalue = [19, 22]"] ;
9 -> 13 ;
14 [label="X[1] <= 43.0\ngini = 0.426\nsamples = 26\nvalue = [8, 18]"] ;
13 -> 14 ;
15 [label="gini = 0.0\nsamples = 4\nvalue = [4, 0]"] ;
14 -> 15 ;
16 [label="X[2] <= 7.05\ngini = 0.298\nsamples = 22\nvalue = [4, 18]"] ;
14 -> 16 ;
17 [label="X[1] <= 46.5\ngini = 0.463\nsamples = 11\nvalue = [4, 7]"] ;
16 -> 17 ;
18 [label="gini = 0.0\nsamples = 6\nvalue = [0, 6]"] ;
17 -> 18 ;
19 [label="gini = 0.32\nsamples = 5\nvalue = [4, 1]"] ;
17 -> 19 ;
20 [label="gini = 0.0\nsamples = 11\nvalue = [0, 11]"] ;
16 -> 20 ;
21 [label="X[2] <= 7.15\ngini = 0.391\nsamples = 15\nvalue = [11, 4]"] ;
13 -> 21 ;
22 [label="gini = 0.32\nsamples = 5\nvalue = [1, 4]"] ;
21 -> 22 ;
23 [label="gini = 0.0\nsamples = 10\nvalue = [10, 0]"] ;
21 -> 23 ;
24 [label="X[2] <= 4.35\ngini = 0.355\nsamples = 26\nvalue = [20, 6]"] ;
6 -> 24 ;
25 [label="gini = 0.48\nsamples = 5\nvalue = [2, 3]"] ;
24 -> 25 ;
26 [label="X[0] <= 152.0\ngini = 0.245\nsamples = 21\nvalue = [18, 3]"] ;
24 -> 26 ;
27 [label="gini = 0.0\nsamples = 13\nvalue = [13, 0]"] ;
26 -> 27 ;
28 [label="X[1] <= 64.5\ngini = 0.469\nsamples = 8\nvalue = [5, 3]"] ;
26 -> 28 ;
29 [label="gini = 0.0\nsamples = 4\nvalue = [4, 0]"] ;
28 -> 29 ;
30 [label="gini = 0.375\nsamples = 4\nvalue = [1, 3]"] ;
28 -> 30 ;
31 [label="X[0] <= 158.9\ngini = 0.198\nsamples = 9\nvalue = [1, 8]"] ;
5 -> 31 ;
32 [label="gini = 0.0\nsamples = 5\nvalue = [0, 5]"] ;
31 -> 32 ;
33 [label="gini = 0.375\nsamples = 4\nvalue = [1, 3]"] ;
31 -> 33 ;
34 [label="X[2] <= 6.95\ngini = 0.49\nsamples = 137\nvalue = [59, 78]"] ;
0 -> 34 [labeldistance=2.5, labelangle=-45, headlabel="False"] ;
35 [label="X[1] <= 51.5\ngini = 0.091\nsamples = 21\nvalue = [1, 20]"] ;
34 -> 35 ;
36 [label="gini = 0.278\nsamples = 6\nvalue = [1, 5]"] ;
35 -> 36 ;
37 [label="gini = 0.0\nsamples = 15\nvalue = [0, 15]"] ;
35 -> 37 ;
38 [label="X[1] <= 45.5\ngini = 0.5\nsamples = 116\nvalue = [58, 58]"] ;
34 -> 38 ;
39 [label="X[1] <= 36.5\ngini = 0.457\nsamples = 48\nvalue = [17, 31]"] ;
38 -> 39 ;
40 [label="X[2] <= 9.15\ngini = 0.32\nsamples = 10\nvalue = [8, 2]"] ;
39 -> 40 ;
41 [label="gini = 0.5\nsamples = 4\nvalue = [2, 2]"] ;
40 -> 41 ;
42 [label="gini = 0.0\nsamples = 6\nvalue = [6, 0]"] ;
40 -> 42 ;
43 [label="X[2] <= 8.5\ngini = 0.361\nsamples = 38\nvalue = [9, 29]"] ;
39 -> 43 ;
44 [label="gini = 0.0\nsamples = 11\nvalue = [0, 11]"] ;
43 -> 44 ;
45 [label="X[2] <= 9.05\ngini = 0.444\nsamples = 27\nvalue = [9, 18]"] ;
43 -> 45 ;
46 [label="gini = 0.0\nsamples = 5\nvalue = [5, 0]"] ;
45 -> 46 ;
47 [label="X[1] <= 39.5\ngini = 0.298\nsamples = 22\nvalue = [4, 18]"] ;
45 -> 47 ;
48 [label="X[2] <= 9.65\ngini = 0.48\nsamples = 10\nvalue = [4, 6]"] ;
47 -> 48 ;
49 [label="gini = 0.32\nsamples = 5\nvalue = [4, 1]"] ;
48 -> 49 ;
50 [label="gini = 0.0\nsamples = 5\nvalue = [0, 5]"] ;
48 -> 50 ;
51 [label="gini = 0.0\nsamples = 12\nvalue = [0, 12]"] ;
47 -> 51 ;
52 [label="X[0] <= 224.9\ngini = 0.479\nsamples = 68\nvalue = [41, 27]"] ;
38 -> 52 ;
53 [label="X[1] <= 55.5\ngini = 0.46\nsamples = 64\nvalue = [41, 23]"] ;
52 -> 53 ;
54 [label="X[1] <= 52.5\ngini = 0.481\nsamples = 57\nvalue = [34, 23]"] ;
53 -> 54 ;
55 [label="X[1] <= 48.5\ngini = 0.453\nsamples = 49\nvalue = [32, 17]"] ;
54 -> 55 ;
56 [label="X[0] <= 189.2\ngini = 0.5\nsamples = 20\nvalue = [10, 10]"] ;
55 -> 56 ;
57 [label="X[0] <= 184.75\ngini = 0.397\nsamples = 11\nvalue = [8, 3]"] ;
56 -> 57 ;
58 [label="gini = 0.49\nsamples = 7\nvalue = [4, 3]"] ;
57 -> 58 ;
59 [label="gini = 0.0\nsamples = 4\nvalue = [4, 0]"] ;
57 -> 59 ;
60 [label="X[0] <= 210.15\ngini = 0.346\nsamples = 9\nvalue = [2, 7]"] ;
56 -> 60 ;
61 [label="gini = 0.0\nsamples = 5\nvalue = [0, 5]"] ;
60 -> 61 ;
62 [label="gini = 0.5\nsamples = 4\nvalue = [2, 2]"] ;
60 -> 62 ;
63 [label="X[2] <= 7.85\ngini = 0.366\nsamples = 29\nvalue = [22, 7]"] ;
55 -> 63 ;
64 [label="gini = 0.444\nsamples = 6\nvalue = [2, 4]"] ;
63 -> 64 ;
65 [label="X[0] <= 183.75\ngini = 0.227\nsamples = 23\nvalue = [20, 3]"] ;
63 -> 65 ;
66 [label="gini = 0.5\nsamples = 4\nvalue = [2, 2]"] ;
65 -> 66 ;
67 [label="X[0] <= 217.15\ngini = 0.1\nsamples = 19\nvalue = [18, 1]"] ;
65 -> 67 ;
68 [label="gini = 0.0\nsamples = 15\nvalue = [15, 0]"] ;
67 -> 68 ;
69 [label="gini = 0.375\nsamples = 4\nvalue = [3, 1]"] ;
67 -> 69 ;
70 [label="X[2] <= 7.75\ngini = 0.375\nsamples = 8\nvalue = [2, 6]"] ;
54 -> 70 ;
71 [label="gini = 0.5\nsamples = 4\nvalue = [2, 2]"] ;
70 -> 71 ;
72 [label="gini = 0.0\nsamples = 4\nvalue = [0, 4]"] ;
70 -> 72 ;
73 [label="gini = 0.0\nsamples = 7\nvalue = [7, 0]"] ;
53 -> 73 ;
74 [label="gini = 0.0\nsamples = 4\nvalue = [0, 4]"] ;
52 -> 74 ;
}